digraph Tree {
node [shape=box, style="filled, rounded", color="black", fontname=helvetica] ;
edge [fontname=helvetica] ;
0 [label="X[1] <= 0.069\ngini = 0.5\nsamples = 100\nvalue = [50, 50]", fillcolor="#ffffff"] ;
1 [label="X[1] <= -0.085\ngini = 0.176\nsamples = 41\nvalue = [4, 37]", fillcolor="#4ea8e8"] ;
0 -> 1 [labeldistance=2.5, labelangle=45, headlabel="True"] ;
2 [label="gini = 0.0\nsamples = 31\nvalue = [0, 31]", fillcolor="#399de5"] ;
1 -> 2 ;
3 [label="gini = 0.48\nsamples = 10\nvalue = [4, 6]", fillcolor="#bddef6"] ;
1 -> 3 ;
4 [label="X[0] <= 1.48\ngini = 0.344\nsamples = 59\nvalue = [46, 13]", fillcolor="#eca571"] ;
0 -> 4 [labeldistance=2.5, labelangle=-45, headlabel="False"] ;
5 [label="gini = 0.229\nsamples = 53\nvalue = [46, 7]", fillcolor="#e99457"] ;
4 -> 5 ;
6 [label="gini = 0.0\nsamples = 6\nvalue = [0, 6]", fillcolor="#399de5"] ;
4 -> 6 ;
}